myValues = {"Weights" : [[ 28.94522858,   1.57591236,  -1.65856922, -45.1362648,   11.26905537,
   -1.32965481,  -6.39280939,  12.58142471, -14.72608471],
 [  1.25364053,   1.61442101,  -1.89138222,  -6.32453442, -29.61410522,
   -1.21346676,  -2.14097476,  16.41506195,   7.60158396],
 [-21.18406296,   2.51122665,  -1.18355298,  12.46762848,  11.02988625,
   -1.99707901,  -1.12189484,  -6.46152687,   6.17933321],
 [  1.24946606,  -1.46003151,  -1.89415932,   9.21031284, -66.0178833,
   -2.8722775,   -4.06090641,  -9.96804428, -13.97950077],
 [  1.91884351, -13.83575344,  -2.97507548,  19.46401787, -16.69325447,
   -4.51370716,   0.67444783,  -8.04491234,   8.54751778],
 [  6.03474808,   4.73597002,  -1.25255084, -32.34384155,  35.69220734,
    0.70779389,  -0.78939104,  -5.51086426, -19.01175499],
 [ -0.47974765,  -1.01450586,  -0.68162137, -36.78091431,   1.21626914,
   -2.30932522,   6.91008615,  -0.66393065,   2.51372671],
 [  5.43079948,   2.94755983,  -1.98594177, -11.2367239,  -11.46972275,
   -0.82020909,  -0.61197627,  -0.32861879,   7.65966415],
 [ -3.00112128, -11.52194023,  -1.75069654,  -3.98684287,  56.37348557,
   -1.64164889,   0.99888551, -12.41349125, -14.3914814 ],
 [-14.6176424,   -7.9079833,   -3.27493978, -18.5451088,   25.05658531,
   -3.05750394,   1.12772441,   6.24930525, -31.32686615],
 [ -0.58669591,   5.6600666,   -0.30072117,  10.83405304, -11.69940758,
   -0.28191519,   1.04293644,   2.25602603,  -1.91861367],
 [ -0.35096163,  -8.5053196,   -8.38720512,  13.18266392,   6.02388763,
   -9.35830116,   5.81385708, -20.187397,   -50.89913559]],
            "Biases": [ -3.21975613,  -6.38554096,  -5.08669901,  -8.09155273,  -8.47245979,
  -4.19029236,  -7.03120804, -16.6656723,   -0.09448577],
            "hiddenWeights": [[ 1.99964952],
 [ 4.17865753],
 [-0.11851573],
 [ 3.8021276 ],
 [ 3.00665855],
 [ 1.82161272],
 [ 0.94240952],
 [ 5.28852892],
 [ 5.77884102]],
            "hiddenBias" :[ 0.929241]}
                    

'''
myValues = { "Weights" : [[  1.33877695,   2.42611885,  -1.6498524,    7.76013899,   0.77143258,
       -3.57863641, -10.41831493,   2.58790898,   2.19516683],
     [ -3.04577971,  -2.60280824,  -1.73133159,  -2.58085465,  -3.33878398,
        5.49133348,  10.37589455,  -3.32649541,  -3.88968325],
     [ -2.99838901,   1.13549161,  -7.24953842, -10.32991505,  -3.87962413,
      -12.81757641,   7.27493429,   2.22906208,  18.84435844],
     [ -3.960428,    -2.64069605,  -4.6558814,   -0.80620283,  -4.09178162,
       -7.22601604,   7.41209221,  -0.73860425,  -6.28695917],
     [ -6.08905315,  -3.24493837,  -6.38586378,  -0.72087651,  -6.53085709,
       -8.1195097,    2.45569777,  -0.45266038,  -2.60400534],
     [ -3.07358646,  -3.13332224,  -1.37454772,   9.08749104,  -2.75056839,
       -1.02353573, -13.40280342,  -3.36011529,  -3.52689719],
     [  1.85643816,   3.7503438,   -2.07958126,   0.91555011,   2.46813178,
       -4.68322325,  -3.29586363,   5.91936541,   5.27369642],
     [  0.80757564,  -0.75285047,   1.29191494,   2.20938015,   0.32239756,
       -3.66530895,  -0.37317574,  -1.79141235,   2.03516078],
     [ -2.3198545,   -1.63475239,  -2.99360085,   5.4830265,   -2.34922004,
       -3.71514416, -13.31292725,  -1.91707003,   4.93871689],
     [ -4.36809301,  -3.71500564,   2.53857374,   4.45831919,  -6.51977396,
        1.73498857, -27.43795776,  -7.5555377,    1.10429311],
     [ -2.66566992,  -2.46926045,  -2.35029268,   2.64521575,  -2.78282809,
       -3.20256853,   3.07838535,  -2.00939775,  -9.31940842],
     [ -8.90785599,  -8.21330547,  -8.68538666,   1.83948112, -10.51830959,
      -16.28369331,  -0.3287681,   -9.55752659,   0.91085398]],

    "Biases": [-2.80140018, -5.25328827, -1.32360482, -9.0696249,  -2.18938375,  3.57379103,
     -0.27621222, -5.23886108, -4.83810806],

    "hiddenWeights": [[ 3.77329278],
     [ 2.41901088],
     [ 4.0241046 ],
     [ 4.59296274],
     [ 4.60128307],
     [ 1.67480576],
     [ 3.7662282 ],
     [ 2.9760673 ],
     [ 2.80536699]],

    "hiddenBias" :[ 1.27858722]}
'''